0.31358647541496526 0.48568033672572636 0.2745913048248226 -0.2822516450731523 -0.48930787046355945 -0.08436377520942923 0.2731175244239677 0.22335731151855548 0.3235644775462209 0.2582633620923929 
0.4722420790665928 0.34179165890130414 -0.25882723178445505 -0.5667860170908121 -0.5630466283184613 -0.7459238209697687 -0.3039755511343235 0.4152967194333446 0.3088622002167449 -0.20092891560367185 
-0.07856337966007107 0.20413453768262313 0.2199062196755659 0.25446066746067286 0.14646901309195504 0.03081044980870007 -0.02657857279898379 0.11948216119801969 -0.11992322864079216 -0.21522207278303673 
-0.6855914655903819 -0.7698149018860345 0.6282880604472383 0.6170036575354894 0.5888007044770909 0.5673382606852346 0.20326725337885931 -0.2624535256717914 -0.06892991461010425 0.17760271034656633 
-0.28251026267633045 -0.39159043964727036 -0.27577064399703016 -0.09661631205330418 0.204125203427935 0.6237822534823034 0.7230418982552962 -0.5622894198682377 -0.2747199503744726 -0.2922388323493544 
-0.34245823616806426 -0.48944238583088123 -0.2958558100826349 -0.09858311171650946 0.792036162374411 0.20828774691206858 0.3178790255389873 -0.6298705433000877 -0.1663473392522087 0.24918882429807915 
-0.11733640751726596 -0.6492301465384547 0.2725697899886778 0.6758917670910827 0.7008243416785414 0.0407751650384105 0.7632805687505244 -0.21860417306038238 0.01447600138480698 0.021352922636760918 
-0.052658481309510424 -0.12244677316368269 -0.19669241007605143 0.6347666890147792 0.0019781848767378984 0.0884968225057372 0.25519363985896054 -0.24142692737168936 0.24360064975368612 0.10459977436849338 
0.4834662754819349 0.29112900901726274 -0.21478305791902047 -0.6894317942582979 -0.761632210490504 -0.0645213395822628 -0.24819446181697408 0.16037717108568428 0.6345432099924022 0.24308498438807463 
0.25401566119634383 0.3320020180487451 0.23163418172267297 -0.7364040787698894 -0.24759682080121442 -0.5329302968924927 -0.7820524747333635 -0.15213717999979273 0.7810259114611748 0.5695416304111719 
