-0.222292734996912 -0.11963698493895458 -0.08960051814603939 -0.7726555150916792 -0.7017673198692255 0.2145156691155053 0.07433881903530637 -0.21180063874840194 -0.2172052859078491 -0.0003987042560181231 
0.18796262645498324 0.716684379121127 -0.299058910553576 0.030155926555822 0.06276135812909267 -0.1503471699122958 -0.16934268733868085 0.6741647008274453 0.41735184513572143 0.731014106670882 
0.2559036682125117 -0.3227091878565668 -0.40080504250242166 0.2834800868648179 0.2807209323776691 0.2905107049295373 -0.004718608508637867 0.22624964008628545 0.33312382903545584 0.4470582058527339 
-0.7882457269882832 -0.2603211125012728 -0.18954953055673995 -0.018220409282768357 0.038317099411632694 0.5682689411133656 -0.18946128680237284 -0.14146179216082028 0.0009812506885193972 0.011680319249927629 
0.058380066917673834 0.0163479489460443 0.39028595819482576 0.29594959503409524 0.2439337931444347 0.5361090575785653 0.24294794922450058 0.21745687497595623 0.33590791718977314 0.4030878568606239 
-0.04783910909500927 0.005703326520889007 0.5942122989142067 0.23912841883722308 0.6791012709899672 0.266089041340144 0.5378034907972895 -0.029124462261734374 0.7612928507683427 0.7959064726760416 
0.09098485531494332 -0.6229016672552927 0.6102684891101502 0.4183552616054227 0.7029227065266284 -0.25521304003795636 -0.11415953707375567 -0.5453658529755803 0.29748214468897877 0.2851855393770169 
-0.1526891634390072 -0.4093641675717234 0.10867164598193457 0.5266321234084911 0.08499700421757062 -0.2996453555678869 -0.1521097959426087 -0.2977397959924219 0.2624693548380515 -0.06149662845901302 
-0.2788971609987576 -0.2763270131991114 0.1422265572690291 -0.06791150626050263 -0.5343089121067637 0.2175981756359549 -0.5600831588029893 -0.5727353772852495 -0.2544707307253909 -0.027381424953867806 
0.06646739264206186 0.1123522270485145 -0.06293492442972207 -0.4414149572178736 -0.5865544143416536 -0.6751818604640515 -0.7161889647791563 0.08525553941817166 -0.1560226258568509 0.2557617996003682 
